digraph Tree {
node [shape=box] ;
0 [label="X[0] <= 1.9025\ngini = 0.3666\nsamples = 1911\nvalue = [1449, 462]"] ;
1 [label="X[12] <= 5.393\ngini = 0.0214\nsamples = 1388\nvalue = [1373, 15]"] ;
0 -> 1 [labeldistance=2.5, labelangle=45, headlabel="True"] ;
2 [label="gini = 0.0\nsamples = 3\nvalue = [0, 3]"] ;
1 -> 2 ;
3 [label="X[4] <= 0.8531\ngini = 0.0172\nsamples = 1385\nvalue = [1373, 12]"] ;
1 -> 3 ;
4 [label="X[6] <= 6.7698\ngini = 0.48\nsamples = 10\nvalue = [6, 4]"] ;
3 -> 4 ;
5 [label="gini = 0.0\nsamples = 6\nvalue = [6, 0]"] ;
4 -> 5 ;
6 [label="gini = 0.0\nsamples = 4\nvalue = [0, 4]"] ;
4 -> 6 ;
7 [label="X[0] <= 0.9286\ngini = 0.0116\nsamples = 1375\nvalue = [1367, 8]"] ;
3 -> 7 ;
8 [label="gini = 0.0\nsamples = 1300\nvalue = [1300, 0]"] ;
7 -> 8 ;
9 [label="X[6] <= 2.9832\ngini = 0.1906\nsamples = 75\nvalue = [67, 8]"] ;
7 -> 9 ;
10 [label="gini = 0.0\nsamples = 47\nvalue = [47, 0]"] ;
9 -> 10 ;
11 [label="X[8] <= 3.8713\ngini = 0.4082\nsamples = 28\nvalue = [20, 8]"] ;
9 -> 11 ;
12 [label="X[12] <= 14.256\ngini = 0.2778\nsamples = 6\nvalue = [1, 5]"] ;
11 -> 12 ;
13 [label="gini = 0.0\nsamples = 1\nvalue = [1, 0]"] ;
12 -> 13 ;
14 [label="gini = 0.0\nsamples = 5\nvalue = [0, 5]"] ;
12 -> 14 ;
15 [label="X[2] <= 0.8536\ngini = 0.2355\nsamples = 22\nvalue = [19, 3]"] ;
11 -> 15 ;
16 [label="gini = 0.0\nsamples = 1\nvalue = [0, 1]"] ;
15 -> 16 ;
17 [label="X[12] <= 71.744\ngini = 0.1723\nsamples = 21\nvalue = [19, 2]"] ;
15 -> 17 ;
18 [label="X[7] <= 1.256\ngini = 0.0997\nsamples = 19\nvalue = [18, 1]"] ;
17 -> 18 ;
19 [label="gini = 0.0\nsamples = 15\nvalue = [15, 0]"] ;
18 -> 19 ;
20 [label="X[1] <= 329.743\ngini = 0.375\nsamples = 4\nvalue = [3, 1]"] ;
18 -> 20 ;
21 [label="gini = 0.0\nsamples = 3\nvalue = [3, 0]"] ;
20 -> 21 ;
22 [label="gini = 0.0\nsamples = 1\nvalue = [0, 1]"] ;
20 -> 22 ;
23 [label="X[7] <= 0.533\ngini = 0.5\nsamples = 2\nvalue = [1, 1]"] ;
17 -> 23 ;
24 [label="gini = 0.0\nsamples = 1\nvalue = [0, 1]"] ;
23 -> 24 ;
25 [label="gini = 0.0\nsamples = 1\nvalue = [1, 0]"] ;
23 -> 25 ;
26 [label="X[1] <= 79.0995\ngini = 0.2484\nsamples = 523\nvalue = [76, 447]"] ;
0 -> 26 [labeldistance=2.5, labelangle=-45, headlabel="False"] ;
27 [label="gini = 0.0\nsamples = 74\nvalue = [74, 0]"] ;
26 -> 27 ;
28 [label="X[6] <= 0.6422\ngini = 0.0089\nsamples = 449\nvalue = [2, 447]"] ;
26 -> 28 ;
29 [label="gini = 0.0\nsamples = 1\nvalue = [1, 0]"] ;
28 -> 29 ;
30 [label="X[9] <= 1.5\ngini = 0.0045\nsamples = 448\nvalue = [1, 447]"] ;
28 -> 30 ;
31 [label="X[2] <= 2.0607\ngini = 0.5\nsamples = 2\nvalue = [1, 1]"] ;
30 -> 31 ;
32 [label="gini = 0.0\nsamples = 1\nvalue = [0, 1]"] ;
31 -> 32 ;
33 [label="gini = 0.0\nsamples = 1\nvalue = [1, 0]"] ;
31 -> 33 ;
34 [label="gini = 0.0\nsamples = 446\nvalue = [0, 446]"] ;
30 -> 34 ;
}